<?xml version="1.0"?>
<opencv_storage>
<cascade>
  <stageType>BOOST</stageType>
  <featureType>HAAR</featureType>
  <height>24</height>
  <width>24</width>
  <stageParams>
    <boostType>GAB</boostType>
    <minHitRate>9.9500000476837158e-01</minHitRate>
    <maxFalseAlarm>5.0000000000000000e-01</maxFalseAlarm>
    <weightTrimRate>9.4999999999999996e-01</weightTrimRate>
    <maxDepth>1</maxDepth>
    <maxWeakCount>100</maxWeakCount></stageParams>
  <featureParams>
    <maxCatCount>0</maxCatCount>
    <featSize>1</featSize>
    <mode>BASIC</mode></featureParams>
  <stageNum>8</stageNum>
  <stages>
    <!-- stage 0 -->
    <_>
      <maxWeakCount>1</maxWeakCount>
      <stageThreshold>1.</stageThreshold>
      <weakClassifiers>
        <_>
          <internalNodes>
            0 -1 0 -6.5314322710037231e-02</internalNodes>
          <leafValues>
            1. -1.</leafValues></_></weakClassifiers></_>
    <!-- stage 1 -->
    <_>
      <maxWeakCount>2</maxWeakCount>
      <stageThreshold>-1.3720867037773132e-01</stageThreshold>
      <weakClassifiers>
        <_>
          <internalNodes>
            0 -1 16 5.9442337602376938e-02</internalNodes>
          <leafValues>
            -9.8963731527328491e-01 8.5046726465225220e-01</leafValues></_>
        <_>
          <internalNodes>
            0 -1 7 -4.0738388895988464e-02</internalNodes>
          <leafValues>
            8.5242861509323120e-01 -9.3335145711898804e-01</leafValues></_></weakClassifiers></_>
    <!-- stage 2 -->
    <_>
      <maxWeakCount>2</maxWeakCount>
      <stageThreshold>-2.1245090663433075e-01</stageThreshold>
      <weakClassifiers>
        <_>
          <internalNodes>
            0 -1 12 -4.5682929456233978e-02</internalNodes>
          <leafValues>
            9.3750000000000000e-01 -9.3137252330780029e-01</leafValues></_>
        <_>
          <internalNodes>
            0 -1 9 5.9934854507446289e-02</internalNodes>
          <leafValues>
            -9.6979433298110962e-01 7.1892166137695313e-01</leafValues></_></weakClassifiers></_>
    <!-- stage 3 -->
    <_>
      <maxWeakCount>3</maxWeakCount>
      <stageThreshold>-1.2254383563995361e+00</stageThreshold>
      <weakClassifiers>
        <_>
          <internalNodes>
            0 -1 10 3.9429359138011932e-02</internalNodes>
          <leafValues>
            -8.8118809461593628e-01 7.9591834545135498e-01</leafValues></_>
        <_>
          <internalNodes>
            0 -1 2 -2.1827971935272217e-01</internalNodes>
          <leafValues>
            6.9882673025131226e-01 -8.8302373886108398e-01</leafValues></_>
        <_>
          <internalNodes>
            0 -1 13 1.6532301902770996e-01</internalNodes>
          <leafValues>
            -1. 5.3877347707748413e-01</leafValues></_></weakClassifiers></_>
    <!-- stage 4 -->
    <_>
      <maxWeakCount>2</maxWeakCount>
      <stageThreshold>-3.4066101908683777e-01</stageThreshold>
      <weakClassifiers>
        <_>
          <internalNodes>
            0 -1 5 -2.5696232914924622e-02</internalNodes>
          <leafValues>
            9.0697675943374634e-01 -8.3177572488784790e-01</leafValues></_>
        <_>
          <internalNodes>
            0 -1 15 1.1079329997301102e-02</internalNodes>
          <leafValues>
            -1. 4.9111467599868774e-01</leafValues></_></weakClassifiers></_>
    <!-- stage 5 -->
    <_>
      <maxWeakCount>3</maxWeakCount>
      <stageThreshold>-1.0751804113388062e+00</stageThreshold>
      <weakClassifiers>
        <_>
          <internalNodes>
            0 -1 4 -4.4489510357379913e-02</internalNodes>
          <leafValues>
            7.0526313781738281e-01 -8.1463414430618286e-01</leafValues></_>
        <_>
          <internalNodes>
            0 -1 3 -1.4868167042732239e-01</internalNodes>
          <leafValues>
            6.6723936796188354e-01 -7.8007602691650391e-01</leafValues></_>
        <_>
          <internalNodes>
            0 -1 6 6.4177207648754120e-02</internalNodes>
          <leafValues>
            -9.2778563499450684e-01 6.2605816125869751e-01</leafValues></_></weakClassifiers></_>
    <!-- stage 6 -->
    <_>
      <maxWeakCount>2</maxWeakCount>
      <stageThreshold>-4.3337455391883850e-01</stageThreshold>
      <weakClassifiers>
        <_>
          <internalNodes>
            0 -1 8 3.8619726896286011e-02</internalNodes>
          <leafValues>
            -8.7368422746658325e-01 6.0000002384185791e-01</leafValues></_>
        <_>
          <internalNodes>
            0 -1 11 5.4324019700288773e-02</internalNodes>
          <leafValues>
            -9.6203458309173584e-01 4.4030964374542236e-01</leafValues></_></weakClassifiers></_>
    <!-- stage 7 -->
    <_>
      <maxWeakCount>2</maxWeakCount>
      <stageThreshold>-4.0690103173255920e-01</stageThreshold>
      <weakClassifiers>
        <_>
          <internalNodes>
            0 -1 1 -4.0240544080734253e-01</internalNodes>
          <leafValues>
            5.4471546411514282e-01 -9.4350284337997437e-01</leafValues></_>
        <_>
          <internalNodes>
            0 -1 14 3.7218775600194931e-02</internalNodes>
          <leafValues>
            -8.8659226894378662e-01 5.3660178184509277e-01</leafValues></_></weakClassifiers></_></stages>
  <features>
    <_>
      <rects>
        <_>
          0 0 8 11 -1.</_>
        <_>
          4 0 4 11 2.</_></rects>
      <tilted>0</tilted></_>
    <_>
      <rects>
        <_>
          0 0 16 24 -1.</_>
        <_>
          8 0 8 24 2.</_></rects>
      <tilted>0</tilted></_>
    <_>
      <rects>
        <_>
          0 3 24 9 -1.</_>
        <_>
          12 3 12 9 2.</_></rects>
      <tilted>0</tilted></_>
    <_>
      <rects>
        <_>
          1 0 8 17 -1.</_>
        <_>
          5 0 4 17 2.</_></rects>
      <tilted>0</tilted></_>
    <_>
      <rects>
        <_>
          2 16 18 8 -1.</_>
        <_>
          2 16 9 4 2.</_>
        <_>
          11 20 9 4 2.</_></rects>
      <tilted>0</tilted></_>
    <_>
      <rects>
        <_>
          3 18 20 6 -1.</_>
        <_>
          3 18 10 3 2.</_>
        <_>
          13 21 10 3 2.</_></rects>
      <tilted>0</tilted></_>
    <_>
      <rects>
        <_>
          5 0 13 12 -1.</_>
        <_>
          5 6 13 6 2.</_></rects>
      <tilted>0</tilted></_>
    <_>
      <rects>
        <_>
          5 1 10 9 -1.</_>
        <_>
          10 1 5 9 2.</_></rects>
      <tilted>0</tilted></_>
    <_>
      <rects>
        <_>
          5 7 16 12 -1.</_>
        <_>
          5 7 8 6 2.</_>
        <_>
          13 13 8 6 2.</_></rects>
      <tilted>0</tilted></_>
    <_>
      <rects>
        <_>
          6 0 17 12 -1.</_>
        <_>
          6 6 17 6 2.</_></rects>
      <tilted>0</tilted></_>
    <_>
      <rects>
        <_>
          8 13 16 8 -1.</_>
        <_>
          8 13 8 4 2.</_>
        <_>
          16 17 8 4 2.</_></rects>
      <tilted>0</tilted></_>
    <_>
      <rects>
        <_>
          9 4 13 10 -1.</_>
        <_>
          9 9 13 5 2.</_></rects>
      <tilted>0</tilted></_>
    <_>
      <rects>
        <_>
          9 19 15 5 -1.</_>
        <_>
          14 19 5 5 3.</_></rects>
      <tilted>0</tilted></_>
    <_>
      <rects>
        <_>
          12 1 11 20 -1.</_>
        <_>
          12 11 11 10 2.</_></rects>
      <tilted>0</tilted></_>
    <_>
      <rects>
        <_>
          14 19 10 4 -1.</_>
        <_>
          19 19 5 4 2.</_></rects>
      <tilted>0</tilted></_>
    <_>
      <rects>
        <_>
          16 17 8 6 -1.</_>
        <_>
          20 17 4 6 2.</_></rects>
      <tilted>0</tilted></_>
    <_>
      <rects>
        <_>
          21 5 3 18 -1.</_>
        <_>
          21 14 3 9 2.</_></rects>
      <tilted>0</tilted></_></features></cascade>
</opencv_storage>
